statement,feature_0,feature_1,feature_2,feature_3,feature_4,feature_5,feature_6,feature_7,feature_8,feature_9,feature_10,feature_11,feature_12,feature_13,feature_14,feature_15,feature_16,feature_17,feature_18,feature_19,feature_20,feature_21,feature_22,feature_23,feature_24,feature_25,feature_26,feature_27,feature_28,feature_29,feature_30,feature_31,feature_32,feature_33,feature_34,feature_35,feature_36,feature_37,feature_38,feature_39,feature_40,feature_41,feature_42,feature_43,feature_44,feature_45,feature_46,feature_47,feature_48,feature_49,feature_50,feature_51,feature_52,feature_53,feature_54,feature_55,feature_56,feature_57,feature_58,feature_59,feature_60,feature_61,feature_62,feature_63,feature_64,feature_65,feature_66,feature_67,feature_68,feature_69,feature_70,feature_71,feature_72,feature_73,feature_74,feature_75,feature_76,feature_77,feature_78,feature_79,feature_80,feature_81,feature_82,feature_83,feature_84,feature_85,feature_86,feature_87,feature_88,feature_89,feature_90,feature_91,feature_92,feature_93,feature_94,feature_95,feature_96,feature_97,feature_98,feature_99,feature_100,feature_101,feature_102,feature_103,feature_104,feature_105,feature_106,feature_107,feature_108,feature_109,feature_110,feature_111,feature_112,feature_113,feature_114,feature_115,feature_116,feature_117,feature_118,feature_119,feature_120,feature_121,feature_122,feature_123,feature_124,feature_125,feature_126,feature_127,feature_128,feature_129,feature_130,feature_131,feature_132,feature_133,feature_134,feature_135,feature_136,feature_137,feature_138,feature_139,feature_140,feature_141,feature_142,feature_143,feature_144,feature_145,feature_146,feature_147,feature_148,feature_149,feature_150,feature_151,feature_152,feature_153,feature_154,feature_155,feature_156,feature_157,feature_158,feature_159,feature_160,feature_161,feature_162,feature_163,feature_164,feature_165,feature_166,feature_167,feature_168,feature_169,feature_170,feature_171,feature_172,feature_173,feature_174,feature_175,feature_176,feature_177,feature_178,feature_179,feature_180,feature_181,feature_182,feature_183,feature_184,feature_185,feature_186,feature_187,feature_188,feature_189,feature_190,feature_191,feature_192,feature_193,feature_194,feature_195,feature_196,feature_197,feature_198,feature_199,feature_200,feature_201,feature_202,feature_203,feature_204,feature_205,feature_206,feature_207,feature_208,feature_209,feature_210,feature_211,feature_212,feature_213,feature_214,feature_215,feature_216,feature_217,feature_218,feature_219,feature_220,feature_221,feature_222,feature_223,feature_224,feature_225,feature_226,feature_227,feature_228,feature_229,feature_230,feature_231,feature_232,feature_233,feature_234,feature_235,feature_236,feature_237,feature_238,feature_239,feature_240,feature_241,feature_242,feature_243,feature_244,feature_245,feature_246,feature_247,feature_248,feature_249,feature_250,feature_251,feature_252,feature_253,feature_254,feature_255,feature_256,feature_257,feature_258,feature_259,feature_260,feature_261,feature_262,feature_263,feature_264,feature_265,feature_266,feature_267,feature_268,feature_269,feature_270,feature_271,feature_272,feature_273,feature_274,feature_275,feature_276,feature_277,feature_278,feature_279,feature_280,feature_281,feature_282,feature_283,feature_284,feature_285,feature_286,feature_287,feature_288,feature_289,feature_290,feature_291,feature_292,feature_293,feature_294,feature_295,feature_296,feature_297,feature_298,feature_299,feature_300,feature_301,feature_302,feature_303,feature_304,feature_305,feature_306,feature_307,feature_308,feature_309,feature_310,feature_311,feature_312,feature_313,feature_314,feature_315,feature_316,feature_317,feature_318,feature_319,feature_320,feature_321,feature_322,feature_323,feature_324,feature_325,feature_326,feature_327,feature_328,feature_329,feature_330,feature_331,feature_332,feature_333,feature_334,feature_335,feature_336,feature_337,feature_338,feature_339,feature_340,feature_341,feature_342,feature_343,feature_344,feature_345,feature_346,feature_347,feature_348,feature_349,feature_350,feature_351,feature_352,feature_353,feature_354,feature_355,feature_356,feature_357,feature_358,feature_359,feature_360,feature_361,feature_362,feature_363,feature_364,feature_365,feature_366,feature_367,feature_368,feature_369,feature_370,feature_371,feature_372,feature_373,feature_374,feature_375,feature_376,feature_377,feature_378,feature_379,feature_380,feature_381,feature_382,feature_383,feature_384,feature_385,feature_386,feature_387,feature_388,feature_389,feature_390,feature_391,feature_392,feature_393,feature_394,feature_395,feature_396,feature_397,feature_398,feature_399,feature_400,feature_401,feature_402,feature_403,feature_404,feature_405,feature_406,feature_407,feature_408,feature_409,feature_410,feature_411,feature_412,feature_413,feature_414,feature_415,feature_416,feature_417,feature_418,feature_419,feature_420,feature_421,feature_422,feature_423,feature_424,feature_425,feature_426,feature_427,feature_428,feature_429,feature_430,feature_431,feature_432,feature_433,feature_434,feature_435,feature_436,feature_437,feature_438,feature_439,feature_440,feature_441,feature_442,feature_443,feature_444,feature_445,feature_446,feature_447,feature_448,feature_449,feature_450,feature_451,feature_452,feature_453,feature_454,feature_455,feature_456,feature_457,feature_458,feature_459,feature_460,feature_461,feature_462,feature_463,feature_464,feature_465,feature_466,feature_467,feature_468,feature_469,feature_470,feature_471,feature_472,feature_473,feature_474,feature_475,feature_476,feature_477,feature_478,feature_479,feature_480,feature_481,feature_482,feature_483,feature_484,feature_485,feature_486,feature_487,feature_488,feature_489,feature_490,feature_491,feature_492,feature_493,feature_494,feature_495,feature_496,feature_497,feature_498,feature_499,feature_500,feature_501,feature_502,feature_503,feature_504,feature_505,feature_506,feature_507,feature_508,feature_509,feature_510,feature_511,feature_512,feature_513,feature_514,feature_515,feature_516,feature_517,feature_518,feature_519,feature_520,feature_521,feature_522,feature_523,feature_524,feature_525,feature_526,feature_527,feature_528,feature_529,feature_530,feature_531,feature_532,feature_533,feature_534,feature_535,feature_536,feature_537,feature_538,feature_539,feature_540,feature_541,feature_542,feature_543,feature_544,feature_545,feature_546,feature_547,feature_548,feature_549,feature_550,feature_551,feature_552,feature_553,feature_554,feature_555,feature_556,feature_557,feature_558,feature_559,feature_560,feature_561,feature_562,feature_563,feature_564,feature_565,feature_566,feature_567,feature_568,feature_569,feature_570,feature_571,feature_572,feature_573,feature_574,feature_575,feature_576,feature_577,feature_578,feature_579,feature_580,feature_581,feature_582,feature_583,feature_584,feature_585,feature_586,feature_587,feature_588,feature_589,feature_590,feature_591,feature_592,feature_593,feature_594,feature_595,feature_596,feature_597,feature_598,feature_599,feature_600,feature_601,feature_602,feature_603,feature_604,feature_605,feature_606,feature_607,feature_608,feature_609,feature_610,feature_611,feature_612,feature_613,feature_614,feature_615,feature_616,feature_617,feature_618,feature_619,feature_620,feature_621,feature_622,feature_623,feature_624,feature_625,feature_626,feature_627,feature_628,feature_629,feature_630,feature_631,feature_632,feature_633,feature_634,feature_635,feature_636,feature_637,feature_638,feature_639,feature_640,feature_641,feature_642,feature_643,feature_644,feature_645,feature_646,feature_647,feature_648,feature_649,feature_650,feature_651,feature_652,feature_653,feature_654,feature_655,feature_656,feature_657,feature_658,feature_659,feature_660,feature_661,feature_662,feature_663,feature_664,feature_665,feature_666,feature_667,feature_668,feature_669,feature_670,feature_671,feature_672,feature_673,feature_674,feature_675,feature_676,feature_677,feature_678,feature_679,feature_680,feature_681,feature_682,feature_683,feature_684,feature_685,feature_686,feature_687,feature_688,feature_689,feature_690,feature_691,feature_692,feature_693,feature_694,feature_695,feature_696,feature_697,feature_698,feature_699,feature_700,feature_701,feature_702,feature_703,feature_704,feature_705,feature_706,feature_707,feature_708,feature_709,feature_710,feature_711,feature_712,feature_713,feature_714,feature_715,feature_716,feature_717,feature_718,feature_719,feature_720,feature_721,feature_722,feature_723,feature_724,feature_725,feature_726,feature_727,feature_728,feature_729,feature_730,feature_731,feature_732,feature_733,feature_734,feature_735,feature_736,feature_737,feature_738,feature_739,feature_740,feature_741,feature_742,feature_743,feature_744,feature_745,feature_746,feature_747,feature_748,feature_749,feature_750,feature_751,feature_752,feature_753,feature_754,feature_755,feature_756,feature_757,feature_758,feature_759,feature_760,feature_761,feature_762,feature_763,feature_764,feature_765,feature_766,feature_767,feature_768,feature_769,feature_770,feature_771,feature_772,feature_773,feature_774,feature_775,feature_776,feature_777,feature_778,feature_779,feature_780,feature_781,feature_782,feature_783,feature_784,feature_785,feature_786,feature_787,feature_788,feature_789,feature_790,feature_791,feature_792,feature_793,feature_794,feature_795,feature_796,feature_797,feature_798,feature_799,feature_800,feature_801,feature_802,feature_803,feature_804,feature_805,feature_806,feature_807,feature_808,feature_809,feature_810,feature_811,feature_812,feature_813,feature_814,feature_815,feature_816,feature_817,feature_818,feature_819,feature_820,feature_821,feature_822,feature_823,feature_824,feature_825,feature_826,feature_827,feature_828,feature_829,feature_830,feature_831,feature_832,feature_833,feature_834,feature_835,feature_836,feature_837,feature_838,feature_839,feature_840,feature_841,feature_842,feature_843,feature_844,feature_845,feature_846,feature_847,feature_848,feature_849,feature_850,feature_851,feature_852,feature_853,feature_854,feature_855,feature_856,feature_857,feature_858,feature_859,feature_860,feature_861,feature_862,feature_863,feature_864,feature_865,feature_866,feature_867,feature_868,feature_869,feature_870,feature_871,feature_872,feature_873,feature_874,feature_875,feature_876,feature_877,feature_878,feature_879,feature_880,feature_881,feature_882,feature_883,feature_884,feature_885,feature_886,feature_887,feature_888,feature_889,feature_890,feature_891,feature_892,feature_893,feature_894,feature_895,feature_896,feature_897,feature_898,feature_899,feature_900,feature_901,feature_902,feature_903,feature_904,feature_905,feature_906,feature_907,feature_908,feature_909,feature_910,feature_911,feature_912,feature_913,feature_914,feature_915,feature_916,feature_917,feature_918,feature_919,feature_920,feature_921,feature_922,feature_923,feature_924,feature_925,feature_926,feature_927,feature_928,feature_929,feature_930,feature_931,feature_932,feature_933,feature_934,feature_935,feature_936,feature_937,feature_938,feature_939,feature_940,feature_941,feature_942,feature_943,feature_944,feature_945,feature_946,feature_947,feature_948,feature_949,feature_950,feature_951,feature_952,feature_953,feature_954,feature_955,feature_956,feature_957,feature_958,feature_959,feature_960,feature_961,feature_962,feature_963,feature_964,feature_965,feature_966,feature_967,feature_968,feature_969,feature_970,feature_971,feature_972,feature_973,feature_974,feature_975,feature_976,feature_977,feature_978,feature_979,feature_980,feature_981,feature_982,feature_983,feature_984,feature_985,feature_986,feature_987,feature_988,feature_989,feature_990,feature_991,feature_992,feature_993,feature_994,feature_995,feature_996,feature_997,feature_998,feature_999,feature_1000,feature_1001,feature_1002,feature_1003,feature_1004,feature_1005,feature_1006,feature_1007,feature_1008,feature_1009,feature_1010,feature_1011,feature_1012,feature_1013,feature_1014,feature_1015,feature_1016,feature_1017,feature_1018,feature_1019,feature_1020,feature_1021,feature_1022,feature_1023,feature_1024,feature_1025,feature_1026,feature_1027,feature_1028,feature_1029,feature_1030,feature_1031,feature_1032,feature_1033,feature_1034,feature_1035,feature_1036,feature_1037,feature_1038,feature_1039,feature_1040,feature_1041,feature_1042,feature_1043,feature_1044,feature_1045,feature_1046,feature_1047,feature_1048,feature_1049,feature_1050,feature_1051,feature_1052,feature_1053,feature_1054,feature_1055,feature_1056,feature_1057,feature_1058,feature_1059,feature_1060,feature_1061,feature_1062,feature_1063,feature_1064,feature_1065,feature_1066,feature_1067,feature_1068,feature_1069,feature_1070,feature_1071,feature_1072,feature_1073,feature_1074,feature_1075,feature_1076,feature_1077,feature_1078,feature_1079,feature_1080,feature_1081,feature_1082,feature_1083,feature_1084,feature_1085,feature_1086,feature_1087,feature_1088,feature_1089,feature_1090,feature_1091,feature_1092,feature_1093,feature_1094,feature_1095,feature_1096,feature_1097,feature_1098,feature_1099,feature_1100,feature_1101,feature_1102,feature_1103,feature_1104,feature_1105,feature_1106,feature_1107,feature_1108,feature_1109,feature_1110,feature_1111,feature_1112,feature_1113,feature_1114,feature_1115,feature_1116,feature_1117,feature_1118,feature_1119,feature_1120,feature_1121,feature_1122,feature_1123,feature_1124,feature_1125,feature_1126,feature_1127,feature_1128,feature_1129,feature_1130,feature_1131,feature_1132,feature_1133,feature_1134,feature_1135,feature_1136,feature_1137,feature_1138,feature_1139,feature_1140,feature_1141,feature_1142,feature_1143,feature_1144,feature_1145,feature_1146,feature_1147,feature_1148,feature_1149,feature_1150,feature_1151,feature_1152,feature_1153,feature_1154,feature_1155,feature_1156,feature_1157,feature_1158,feature_1159,feature_1160,feature_1161,feature_1162,feature_1163,feature_1164,feature_1165,feature_1166,feature_1167,feature_1168,feature_1169,feature_1170,feature_1171,feature_1172,feature_1173,feature_1174,feature_1175,feature_1176,feature_1177,feature_1178,feature_1179,feature_1180,feature_1181,feature_1182,feature_1183,feature_1184,feature_1185,feature_1186,feature_1187,feature_1188,feature_1189,feature_1190,feature_1191,feature_1192,feature_1193,feature_1194,feature_1195,feature_1196,feature_1197,feature_1198,feature_1199,feature_1200,feature_1201,feature_1202,feature_1203,feature_1204,feature_1205,feature_1206,feature_1207,feature_1208,feature_1209,feature_1210,feature_1211,feature_1212,feature_1213,feature_1214,feature_1215,feature_1216,feature_1217,feature_1218,feature_1219,feature_1220,feature_1221,feature_1222,feature_1223,feature_1224,feature_1225,feature_1226,feature_1227,feature_1228,feature_1229,feature_1230,feature_1231,feature_1232,feature_1233,feature_1234,feature_1235,feature_1236,feature_1237,feature_1238,feature_1239,feature_1240,feature_1241,feature_1242,feature_1243,feature_1244,feature_1245,feature_1246,feature_1247,feature_1248,feature_1249,feature_1250,feature_1251,feature_1252,feature_1253,feature_1254,feature_1255,feature_1256,feature_1257,feature_1258,feature_1259,feature_1260,feature_1261,feature_1262,feature_1263,feature_1264,feature_1265,feature_1266,feature_1267,feature_1268,feature_1269,feature_1270,feature_1271,feature_1272,feature_1273,feature_1274,feature_1275,feature_1276,feature_1277,feature_1278,feature_1279,feature_1280,feature_1281,feature_1282,feature_1283,feature_1284,feature_1285,feature_1286,feature_1287,feature_1288,feature_1289,feature_1290,feature_1291,feature_1292,feature_1293,feature_1294,feature_1295,feature_1296,feature_1297,feature_1298,feature_1299,feature_1300,feature_1301,feature_1302,feature_1303,feature_1304,feature_1305,feature_1306,feature_1307,feature_1308,feature_1309,feature_1310,feature_1311,feature_1312,feature_1313,feature_1314,feature_1315,feature_1316,feature_1317,feature_1318,feature_1319,feature_1320,feature_1321,feature_1322,feature_1323,feature_1324,feature_1325,feature_1326,feature_1327,feature_1328,feature_1329,feature_1330,feature_1331,feature_1332,feature_1333,feature_1334,feature_1335,feature_1336,feature_1337,feature_1338,feature_1339,feature_1340,feature_1341,feature_1342,feature_1343,feature_1344,feature_1345,feature_1346,feature_1347,feature_1348,feature_1349,feature_1350,feature_1351,feature_1352,feature_1353,feature_1354,feature_1355,feature_1356,feature_1357,feature_1358,feature_1359,feature_1360,feature_1361,feature_1362,feature_1363,feature_1364,feature_1365,feature_1366,feature_1367,feature_1368,feature_1369,feature_1370,feature_1371,feature_1372,feature_1373,feature_1374,feature_1375,feature_1376,feature_1377,feature_1378,feature_1379,feature_1380,feature_1381,feature_1382,feature_1383,feature_1384,feature_1385,feature_1386,feature_1387,feature_1388,feature_1389,feature_1390,feature_1391,feature_1392,feature_1393,feature_1394,feature_1395,feature_1396,feature_1397,feature_1398,feature_1399,feature_1400,feature_1401,feature_1402,feature_1403,feature_1404,feature_1405,feature_1406,feature_1407,feature_1408,feature_1409,feature_1410,feature_1411,feature_1412,feature_1413,feature_1414,feature_1415,feature_1416,feature_1417,feature_1418,feature_1419,feature_1420,feature_1421,feature_1422,feature_1423,feature_1424,feature_1425,feature_1426,feature_1427,feature_1428,feature_1429,feature_1430,feature_1431,feature_1432,feature_1433,feature_1434,feature_1435,feature_1436,feature_1437,feature_1438,feature_1439,feature_1440,feature_1441,feature_1442,feature_1443,feature_1444,feature_1445,feature_1446,feature_1447,feature_1448,feature_1449,feature_1450,feature_1451,feature_1452,feature_1453,feature_1454,feature_1455,feature_1456,feature_1457,feature_1458,feature_1459,feature_1460,feature_1461,feature_1462,feature_1463,feature_1464,feature_1465,feature_1466,feature_1467,feature_1468,feature_1469,feature_1470,feature_1471,feature_1472,feature_1473,feature_1474,feature_1475,feature_1476,feature_1477,feature_1478,feature_1479,feature_1480,feature_1481,feature_1482,feature_1483,feature_1484,feature_1485,feature_1486,feature_1487,feature_1488,feature_1489,feature_1490,feature_1491,feature_1492,feature_1493,feature_1494,feature_1495,feature_1496,feature_1497,feature_1498,feature_1499,feature_1500,feature_1501,feature_1502,feature_1503,feature_1504,feature_1505,feature_1506,feature_1507,feature_1508,feature_1509,feature_1510,feature_1511,feature_1512,feature_1513,feature_1514,feature_1515,feature_1516,feature_1517,feature_1518,feature_1519,feature_1520,feature_1521,feature_1522,feature_1523,feature_1524,feature_1525,feature_1526,feature_1527,feature_1528,feature_1529,feature_1530,feature_1531,feature_1532,feature_1533,feature_1534,feature_1535
I,0.027599727734923363,0.01540799904614687,-0.008872472681105137,-0.0014110796619206667,0.021642494946718216,-0.008927925489842892,0.019012441858649254,0.006880126893520355,-0.006587018724530935,-0.02403489500284195,0.037010885775089264,0.01466334518045187,-0.03612363710999489,-0.010852934792637825,0.017317164689302444,-0.050573091953992844,0.007248493377119303,-0.028946440666913986,0.05557970330119133,0.07047278434038162,-0.0041391667909920216,0.02351205237209797,-0.0074901096522808075,0.014425689354538918,0.024732017889618874,-0.012263024225831032,-0.02520732767879963,-0.0020715638529509306,0.014750485308468342,0.0017160708084702492,0.040401436388492584,-0.019868001341819763,-0.011098512448370457,-0.04746772721409798,0.0058859349228441715,0.022402992472052574,0.019836314022541046,0.02794828824698925,-0.017919225618243217,0.03910225257277489,0.042809680104255676,-0.003956964239478111,0.05241096392273903,-0.0021131536923348904,0.010393467731773853,0.001491288305260241,0.004582790657877922,0.009181424975395203,-0.0009169541881419718,-0.01829947531223297,0.0012120431056246161,0.017222102731466293,-0.008028795011341572,0.006666237022727728,-0.05241096392273903,0.014053362421691418,-0.008500145748257637,0.03355695679783821,0.017428070306777954,0.0006510770763270557,0.049368973821401596,-0.008175349794328213,0.04575660824775696,-0.024320080876350403,-0.008413005620241165,-0.023258553817868233,-0.03957756608724594,0.04575660824775696,0.01338792685419321,-0.024209175258874893,-0.04002118855714798,0.012857163324952126,-0.06806454062461853,0.013253255747258663,0.026411449536681175,0.0231001153588295,-0.04455248638987541,-0.0210562776774168,-0.003628207603469491,0.036884136497974396,0.028740473091602325,0.029770314693450928,-0.027900757268071175,-0.05000272020697594,-0.030308999121189117,0.012476914562284946,-0.10653304308652878,0.013467146083712578,-0.024050738662481308,-0.020279936492443085,-0.011922384612262249,0.04106687381863594,-0.030103031545877457,0.01904412917792797,0.005240303929895163,0.021214716136455536,0.001972540747374296,0.0136493481695652,0.02054928056895733,0.016651729121804237,0.008856629021465778,0.03187752515077591,-0.002475578337907791,0.013039365410804749,0.05529451742768288,-0.0019071855349466205,-0.0023072389885783195,-0.06404023617506027,-0.0480697900056839,0.01798260025680065,0.012880928814411163,-0.029374221339821815,-0.012833397835493088,0.01619226299226284,0.0006456308183260262,-0.019313471391797066,-0.00969634484499693,-0.020279936492443085,-0.03415901958942413,-0.0994984433054924,-0.008935847319662571,-0.035838451236486435,0.0018655958119779825,-0.07281764596700668,0.02455773577094078,-0.03650388866662979,0.024716174229979515,-0.038690317422151566,-0.032859835773706436,-0.03263802453875542,0.05390027165412903,0.00635332427918911,0.03257464990019798,-0.015946684405207634,-0.01059151440858841,-0.005755224265158176,-0.004273838363587856,0.06565629690885544,-0.07034603506326675,0.009886469691991806,-0.01292053796350956,0.0015714970650151372,0.032669711858034134,0.007082134485244751,0.020517593249678612,-0.030007969588041306,-0.014758407138288021,0.017127040773630142,0.016683416441082954,-0.02807503752410412,-0.0030479319393634796,-0.0013496852479875088,-0.00701083755120635,-0.026506511494517326,-0.04404548928141594,-0.02001059427857399,-0.015827856957912445,-0.004622399806976318,-0.02552420273423195,0.059445567429065704,-0.02764725871384144,-0.06958553194999695,0.017950912937521935,-0.03644051030278206,-0.06369167566299438,0.016073433682322502,-0.04512286186218262,0.0045669469982385635,-0.057639382779598236,0.02753635123372078,-0.030198093503713608,-0.018885690718889236,0.021864308044314384,-0.006880126893520355,-0.034349143505096436,-0.015392155386507511,-0.018125193193554878,-0.027821538969874382,-0.03599688783288002,0.02699766680598259,0.03431745618581772,0.05041465535759926,-0.021404840052127838,0.01810934953391552,-0.018552973866462708,0.0038896286860108376,-0.020565124228596687,0.05957231670618057,-0.03336683288216591,-0.008539754897356033,-0.0021468214690685272,-0.0027686867397278547,0.052252527326345444,0.03358864411711693,0.05263277515769005,-0.03853188082575798,0.016984447836875916,-0.005418545566499233,-0.009981531649827957,0.045059483498334885,0.01798260025680065,0.001719041494652629,-0.0040322220884263515,-0.013839473016560078,-0.047277603298425674,-0.031196247786283493,-0.021642494946718216,0.02043837495148182,0.03463432937860489,-0.0374545082449913,0.0652126744389534,-0.012255102396011353,0.0029865375254303217,0.03780306875705719,-0.02211780659854412,-0.011946150101721287,0.005458155181258917,0.016493292525410652,-0.002136919181793928,-0.0021408800967037678,-0.014108815230429173,0.02202274464070797,0.039736002683639526,0.05209408700466156,-0.043031491339206696,0.032447900623083115,0.03948250412940979,-0.042809680104255676,-0.03650388866662979,-0.012041212990880013,0.032859835773706436,-0.00969634484499693,-0.03510964289307594,-0.03501457720994949,-0.017079509794712067,0.015598123893141747,-0.02222871221601963,-0.04353848844766617,0.042714618146419525,-0.01663588546216488,0.011613432317972183,0.01768157072365284,0.01105890329927206,0.04395042732357979,0.026221325621008873,0.011732260696589947,-0.004135205876082182,-0.02744128927588463,-0.004198580514639616,0.021119654178619385,0.034349143505096436,0.010417233221232891,0.005806716158986092,-0.016667572781443596,-0.07351477444171906,-0.000596119265537709,0.05782950669527054,0.04128868505358696,0.051840588450431824,0.03685244917869568,-0.032035961747169495,-0.011035137809813023,-0.04344342648983002,-0.005763146094977856,-0.03612363710999489,-0.0070979781448841095,0.009831015951931477,0.01628732495009899,0.0008476380025967956,-0.006753377616405487,0.018362849950790405,-0.02002643793821335,0.025223171338438988,0.022799085825681686,-0.04585167020559311,0.03897550329566002,0.0070662908256053925,0.05250602588057518,-0.022846616804599762,0.06400854885578156,-0.027678946033120155,-0.03824669495224953,0.005489842500537634,0.034032270312309265,0.013641426339745522,-0.0008105043089017272,-0.017840007320046425,-0.0226406492292881,0.0019665993750095367,-0.01755482144653797,-0.008666504174470901,0.017237946391105652,-0.012373930774629116,0.006115668453276157,-0.027979975566267967,0.05643526092171669,-0.00039807299617677927,-0.03358864411711693,0.008127818815410137,0.01872725412249565,0.09924494475126266,0.004622399806976318,0.014481142163276672,-0.008714035153388977,-0.06454724073410034,0.025888606905937195,0.07351477444171906,-0.001007560407742858,0.004547141958028078,0.0012001603608950973,-0.017950912937521935,0.006000801920890808,-0.006800908595323563,0.010100359097123146,-0.05950894206762314,-0.04521792382001877,0.01674679107964039,0.03184583783149719,0.023242708295583725,-0.0002908804453909397,0.0003012778761330992,-0.01757066510617733,0.001840839977376163,-0.05146034061908722,0.0038500193040817976,-0.014742563478648663,0.03018224984407425,-0.010108280926942825,-0.019297627732157707,-0.022830773144960403,-0.0075653670355677605,0.027678946033120155,-0.0051769292913377285,0.010338014923036098,0.00326776341535151,-0.027488820254802704,-0.049305595457553864,-0.01143123023211956,-0.0007555464981123805,-0.011835244484245777,-0.018901534378528595,-0.026189638301730156,-0.015930840745568275,-0.025698482990264893,0.025064734742045403,-0.017111197113990784,-0.02954850159585476,-0.015209953300654888,0.003980729728937149,-0.02054928056895733,0.009664657525718212,0.028249317780137062,-0.025872763246297836,0.0005258128512650728,-0.045693233609199524,-0.04819653928279877,0.044425737112760544,-0.031180404126644135,-0.010781638324260712,0.02815425582230091,-0.03723269701004028,-0.02669663541018963,0.04486935958266258,0.04940066114068031,0.036377135664224625,0.02096121571958065,-0.010813325643539429,0.028296850621700287,-0.016429917886853218,0.011993682011961937,-0.011629276908934116,0.009529986418783665,-0.015922918915748596,0.027552196756005287,-0.012009525671601295,0.01343545876443386,0.013578051701188087,0.0036222662311047316,0.026506511494517326,0.0037608984857797623,0.0063889725133776665,0.03792982175946236,0.003117248183116317,-0.029295003041625023,0.033525269478559494,-0.04011625051498413,0.022830773144960403,0.0034598682541400194,0.006693963427096605,0.004832328762859106,0.027884913608431816,-0.0449010469019413,0.010282562114298344,-0.030039656907320023,-0.014853470027446747,-0.024177487939596176,0.03081599809229374,0.05706901103258133,-0.019630344584584236,-0.042080868035554886,-0.002624112879857421,-0.026395605877041817,-0.03441251814365387,0.0023171412758529186,-0.03526807948946953,0.0038737847935408354,-0.025128109380602837,-0.02604704350233078,0.012009525671601295,-0.036377135664224625,-0.009854782372713089,-0.04223930835723877,0.049685847014188766,0.036472197622060776,-0.0018982733599841595,-0.03602857515215874,0.008864550851285458,-0.01620018482208252,0.018885690718889236,0.016073433682322502,-0.018442068248987198,0.06983903050422668,-0.009165581315755844,-0.03618701174855232,0.03609194979071617,0.01959865726530552,0.039640940725803375,-0.05735419690608978,0.012991834431886673,-0.08118312060832977,0.004562986083328724,0.024082425981760025,-0.05063646659255028,0.041985806077718735,-0.01747560128569603,-0.043570175766944885,0.0009372539352625608,0.022624805569648743,0.02298920974135399,0.03236868232488632,0.008167427964508533,0.020374998450279236,0.041352059692144394,-0.00905467476695776,0.009815172292292118,-0.006183004472404718,-0.030942747369408607,-0.024684486910700798,-0.0280433502048254,-0.023892300203442574,0.018394537270069122,-0.020913684740662575,0.021737556904554367,0.01080540381371975,-0.014322705566883087,-0.030451593920588493,0.004911547061055899,0.02149990200996399,-0.05187227576971054,-0.02826516330242157,-0.00820703711360693,0.014710876159369946,0.007216805592179298,0.006848439574241638,0.013364161364734173,0.024652797728776932,-0.01568526402115822,0.050446342676877975,-0.009981531649827957,-0.034570954740047455,-0.015273327939212322,0.024272549897432327,0.00809217058122158,0.0031231895554810762,0.020612655207514763,0.014687110669910908,0.008721956983208656,0.004091635812073946,0.0020814661402255297,-0.05212577432394028,0.005260108504444361,0.036884136497974396,-0.02984953299164772,-0.003931218292564154,0.007890162989497185,-0.012001603841781616,0.005909700412303209,-0.01318195927888155,-0.042492806911468506,-0.01704782247543335,-0.0007768364739604294,0.01456036139279604,0.06321636587381363,-0.018901534378528595,-0.009910235181450844,0.007078173570334911,0.004079753067344427,-0.07078965753316879,-0.02373386360704899,-0.056181762367486954,0.015542670153081417,0.0043253302574157715,-0.005121476482599974,-0.007735686842352152,0.00783074926584959,0.008246646262705326,-0.0033034116495400667,0.0018368790624663234,-0.00571957603096962,0.009751797653734684,-0.003279646160081029,0.03910225257277489,-0.00983893871307373,-0.02181677706539631,-0.01641407422721386,0.0077713350765407085,0.019345158711075783,0.03704257309436798,0.0043253302574157715,-0.020279936492443085,0.01682601124048233,-0.016461605206131935,0.026427293196320534,-0.06971228122711182,-0.01801428757607937,-0.07218389958143234,-0.006143394857645035,-0.051080092787742615,-0.01810934953391552,0.0005376955959945917,0.02870878577232361,0.02042253129184246,-0.0019883844070136547,-0.0029330651741474867,0.016176419332623482,0.020184874534606934,0.036694012582302094,-0.003065756056457758,0.029152410104870796,0.003895570058375597,0.0450911745429039,0.00590177858248353,0.0010031042620539665,0.01105890329927206,0.003705445444211364,0.024652797728776932,0.0017338950419798493,-0.01303144358098507,0.022846616804599762,0.040274687111377716,-0.008547676727175713,-0.011684729717671871,0.008286255411803722,0.0034578877966850996,0.010108280926942825,-0.0018428204348310828,0.013063131831586361,-0.015701107680797577,-0.011146043427288532,0.014148425310850143,-0.033303458243608475,-0.002366652712225914,0.03346189484000206,-0.003651973092928529,-0.027472976595163345,0.0011872873874381185,-0.01999475061893463,-0.02424086257815361,-0.006373128853738308,0.017744945362210274,-0.038753692060709,-0.0013962261145934463,0.014631657861173153,-0.029611876234412193,0.016556667163968086,-0.007660429459065199,0.015114890411496162,0.003527203807607293,-0.012160040438175201,-0.02064434252679348,0.003424219787120819,-0.025492515414953232,-0.040242999792099,-0.02297336608171463,-0.0012764082057401538,-0.006206769961863756,0.0010268698679283261,-0.0007020739722065628,-0.008270411752164364,0.03167155757546425,0.003505418775603175,-0.0008506086887791753,-0.02973862737417221,-0.0021468214690685272,0.007355438079684973,-0.0008575402898713946,-0.0066701979376375675,0.014124658890068531,-0.018885690718889236,-0.008413005620241165,-0.023654645308852196,-0.05304471030831337,0.0066068232990801334,-0.03469770401716232,-0.00076148787047714,0.008721956983208656,0.012358087114989758,-0.04531298577785492,0.032542962580919266,-0.03406395763158798,0.003661875380203128,0.018061818554997444,0.010615279898047447,-0.005485881585627794,-0.0419224314391613,0.00784263201057911,-0.039324063807725906,0.010615279898047447,0.037961509078741074,-0.023226864635944366,-0.030879372730851173,0.0010644986759871244,0.02286246046423912,0.04829160124063492,0.034475892782211304,0.005616591777652502,-0.010290483944118023,-0.053298208862543106,-0.011241105385124683,-0.0005896827206015587,0.011724338866770267,0.01757066510617733,0.010195421986281872,0.023638801649212837,-0.004479806404560804,-0.030340686440467834,-0.03184583783149719,-0.003867843421176076,0.015439686365425587,-0.06473736464977264,-0.012057056650519371,-0.010235031135380268,0.000874374236445874,0.013380005024373531,0.04204918071627617,-0.006301831919699907,0.037264384329319,0.01429894007742405,-0.00884078536182642,-0.037105947732925415,-0.03685244917869568,-0.026823386549949646,0.017697414383292198,0.011225261725485325,-0.006119629368185997,0.00709005631506443,-0.043982114642858505,-0.019646188244223595,-0.0018319279188290238,0.007925811223685741,0.012556132860481739,0.0002856817445717752,0.0400528758764267,-0.034032270312309265,0.029485126957297325,0.04566154628992081,-0.0008515989175066352,-0.010520217008888721,0.019519438967108727,-0.002744921250268817,-0.01079748198390007,0.03979937732219696,0.032669711858034134,-0.028296850621700287,0.01768157072365284,0.02720363438129425,-0.016905229538679123,-0.024415142834186554,-0.012397696264088154,0.015582280233502388,0.012263024225831032,0.015154499560594559,-0.0024102230090647936,-0.012104587629437447,-0.011502526700496674,0.007775295991450548,-0.005339327268302441,-0.021674182265996933,-0.038817066699266434,-0.003804468782618642,-0.04997103288769722,0.018996598199009895,0.04962247237563133,-0.039007190614938736,-0.00653552683070302,-0.03311333432793617,0.03865863010287285,-0.01885400339961052,-0.01381570752710104,-0.1030474305152893,0.006040411069989204,-0.01254028920084238,0.002007198752835393,-0.001820045174099505,0.0012160040205344558,0.003370747435837984,-0.02245052345097065,-0.0025944060180336237,0.014821781776845455,0.005707693286240101,0.005038296803832054,-0.010496451519429684,-0.02923162840306759,0.043887052685022354,0.007161352783441544,0.05120684206485748,0.019218409433960915,-0.026126263663172722,-0.011209418065845966,-0.04074999690055847,0.011146043427288532,0.008634816855192184,-0.025746013969182968,-0.012833397835493088,0.0006362235872074962,-0.0002195837878389284,-0.04914715886116028,-0.002382496604695916,0.003705445444211364,-0.007335633505135775,-0.012199649587273598,0.047594476491212845,0.03228946402668953,0.007902045734226704,-0.019741252064704895,0.03476107865571976,-0.0637233629822731,0.0029231628868728876,-0.03571170195937157,-0.024304237216711044,-0.0054264673963189125,-0.01790338195860386,-0.0036539535503834486,0.0030083227902650833,0.002733038505539298,-0.0017140903510153294,0.02571432664990425,0.011977837421000004,-0.011272793635725975,-0.013459224253892899,-0.005454194266349077,0.011510448530316353,-0.013308708555996418,0.022799085825681686,0.02243467979133129,-0.040274687111377716,0.012952225282788277,-0.03400058299303055,0.004353056661784649,0.012746257707476616,0.007545562461018562,0.007711921352893114,-0.014996062964200974,-0.032432056963443756,0.0012902714079245925,-0.0030716974288225174,-0.04065493494272232,-0.037961509078741074,0.004986804910004139,0.004614477977156639,0.02625301294028759,-0.006983111146837473,0.00423422921448946,0.016350699588656425,0.014108815230429173,0.0016685397131368518,-0.030530812218785286,-0.007822827436029911,-0.02256143093109131,0.015479295514523983,0.006234496366232634,-0.03644051030278206,-0.034032270312309265,-0.02539745345711708,0.04309486597776413,-0.017523132264614105,0.007248493377119303,-0.007323750760406256,-0.011011372320353985,0.02073940448462963,-0.007902045734226704,-0.006076059304177761,-0.003980729728937149,-0.014877235516905785,0.009601282887160778,-0.015423842705786228,-0.012152118608355522,-0.10684991627931595,-0.045376360416412354,0.015709029510617256,0.005212577525526285,0.014346471056342125,-0.004214424639940262,0.028296850621700287,0.0020814661402255297,-0.005256147589534521,-0.014813859947025776,-0.011470839381217957,0.02740960195660591,0.0077713350765407085,0.02064434252679348,0.0025508359540253878,0.002313180360943079,0.030990278348326683,-0.002940987003967166,-0.029152410104870796,-0.015954606235027313,-0.012770023196935654,-0.029786158353090286,0.014996062964200974,0.03568001464009285,-0.0059611923061311245,-0.00931609608232975,-0.029580188915133476,-0.023242708295583725,0.005727497860789299,-0.020501749590039253,-0.03103780932724476,-0.02224455587565899,0.007929772138595581,0.020771091803908348,-0.00819911528378725,0.011771869845688343,-0.001943823997862637,-0.02508057840168476,0.007299985270947218,-0.013633504509925842,-0.03346189484000206,-0.0001824501232476905,0.008642738685011864,0.02647482417523861,-0.013498833402991295,0.011019294150173664,0.004198580514639616,-0.0016814128030091524,0.006939541082829237,0.015194108709692955,0.014948531985282898,0.010464764200150967,0.018473755568265915,0.014734641648828983,0.0010347916977480054,-0.007074212655425072,0.024098269641399384,0.011478761211037636,-0.025698482990264893,-0.03438083082437515,-0.003198447171598673,-0.0287880040705204,-0.017000291496515274,0.007252454292029142,0.021959370002150536,-0.009569595567882061,-0.03460264205932617,0.021040434017777443,-0.011843166314065456,0.037961509078741074,0.017412226647138596,0.001326909987255931,0.014916844666004181,0.012983912602066994,0.026839230209589005,-0.033398520201444626,-0.03289152309298515,-0.0018388595199212432,0.036377135664224625,0.0022458445746451616,0.0059968410059809685,-0.008325864560902119,0.0006644452223554254,0.03216271102428436,-0.01703197881579399,-0.02126224711537361,0.052030712366104126,-0.026965979486703873,-0.00608398113399744,-0.034285768866539,-0.00527199124917388,0.012215493246912956,0.019139191135764122,0.025254858657717705,-0.002663722261786461,-0.005169007461518049,-0.030784310773015022,-0.02721947804093361,-0.031703244894742966,0.02276739850640297,0.0019477850291877985,0.03631376102566719,-0.008634816855192184,-0.05485089123249054,-0.012825476005673409,0.007299985270947218,0.00979140680283308,0.027504663914442062,0.011763948015868664,0.008270411752164364,-0.001604174729436636,-0.01106682512909174,-0.002824139781296253,0.009997375309467316,0.03758125752210617,0.00031415087869390845,-0.0256192646920681,-0.02699766680598259,0.04268293082714081,0.015598123893141747,-0.00010118926002178341,0.029485126957297325,-0.03821500763297081,-0.052442651242017746,-0.006448386237025261,-0.016461605206131935,-0.007208883762359619,-0.007961459457874298,0.0026795659214258194,-0.032796461135149,0.03957756608724594,0.038912128657102585,0.004222346469759941,2.2048119717510417e-05,0.024304237216711044,-0.014980219304561615,0.017824163660407066,-0.012556132860481739,-0.003844077931717038,0.00516108563169837,0.01926594041287899,0.00441643176600337,0.020359154790639877,-0.02847113087773323,-0.03811994567513466,-0.022387148812413216,-0.007672312203794718,0.025682639330625534,0.01842622458934784,0.005893856752663851,0.03463432937860489,-0.0005985948373563588,0.034032270312309265,0.0421125553548336,0.016350699588656425,0.014085049740970135,0.006876165978610516,0.009767641313374043,0.016239793971180916,0.04290474206209183,0.0029271238017827272,-0.028867222368717194,-0.011367855593562126,-0.001922038965858519,0.004923430271446705,0.0041510495357215405,0.025064734742045403,-0.018141036853194237,0.04277799278497696,-0.012310555204749107,-0.02910487912595272,0.03644051030278206,0.015376311726868153,-0.01169265154749155,0.0013140368973836303,0.00690785376355052,-0.006792986765503883,0.005937426816672087,0.01801428757607937,-0.04252449423074722,0.0186321921646595,0.022941678762435913,-0.03463432937860489,-0.025967825204133987,0.02053343690931797,0.025064734742045403,0.02721947804093361,-0.009720110334455967,0.039736002683639526,0.056498635560274124,0.01514657773077488,-0.011684729717671871,-0.04486935958266258,0.0016358621651306748,0.018045974895358086,-0.02476370520889759,0.02211780659854412,0.020929528400301933,0.016778478398919106,0.01280171051621437,0.014005831442773342,0.021135497838258743,0.025143953040242195,-0.008302099071443081,0.0008649670635350049,0.0023884379770606756,0.021579120308160782,-0.007375242654234171,0.0030815997160971165,-0.013221568427979946,0.015051515772938728,-0.00433721300214529,-0.02733038365840912,-0.001604174729436636,0.028344381600618362,-0.02053343690931797,-0.0022042549680918455,-0.014988141134381294,0.018331162631511688,-0.01989968866109848,0.018188567832112312,-0.0233853030949831,-0.012112509459257126,0.03355695679783821,-0.006947462912648916,0.05088996887207031,-0.027583884075284004,0.004614477977156639,-0.019440220668911934,0.05586488917469978,-0.01155005767941475,0.039640940725803375,0.015629811212420464,0.0013962261145934463,0.006888049189001322,0.020279936492443085,-0.006658315192908049,0.002994459355250001,-0.0036460317205637693,-0.027599727734923363,0.0005047704325988889,0.00691181467846036,-0.02295752242207527,0.002150782383978367,0.02232377417385578,0.030261468142271042,0.04068662226200104,-0.0007174225756898522,0.0026993704959750175,0.01116980891674757,0.0049590785056352615,0.014227643609046936,-0.004911547061055899,-0.03767631947994232,-0.00968050118535757,-0.008135740645229816,-0.022894147783517838,-0.007375242654234171,0.0028419638983905315,-0.002917221514508128,0.005236343014985323,0.004349095746874809,-0.0032578608952462673,-0.010757872834801674,-0.0016269499901682138,-0.007303946185857058,-0.05006609484553337,0.01861634850502014,-0.012223415076732635,-0.007688155863434076,0.007890162989497185,-0.015907075256109238,0.03770800679922104,0.02679169736802578,0.004943234845995903,0.02127809077501297,-0.005909700412303209,-0.032241933047771454,-0.015320858918130398,-0.03469770401716232,-0.04119362309575081,0.02720363438129425,-0.0037450548261404037,0.03162402659654617,-0.0029766352381557226,-0.01576448231935501,-0.024430986493825912,-0.023844769224524498,0.02774232067167759,0.01154213584959507,0.013974144123494625,0.014164268970489502,0.0016012040432542562,0.0027706671971827745,-0.007909967564046383,0.015542670153081417,0.0061037857085466385,0.010258796624839306,-0.015709029510617256,-0.013681035488843918,0.004677852615714073,0.040242999792099,0.006016645580530167,0.04312655329704285,0.003701484529301524,0.018045974895358086,0.03365202248096466,0.047150854021310806,-0.024652797728776932,-0.014069206081330776,0.046833980828523636,-0.004951156675815582,-0.0002785025571938604,-0.05120684206485748,0.03504626452922821,0.004559024702757597,-0.012714570388197899,0.008809098042547703,0.016762634739279747,-0.009331939741969109,-0.015352546237409115,-0.023163489997386932,0.02233961783349514,-0.00024099754227790982,-0.01989968866109848,-0.014742563478648663,0.004190658684819937,-0.014259330928325653,0.013490911573171616,0.04711916670203209,-0.03463432937860489,-0.02297336608171463,0.017713258042931557,-0.009236877784132957,0.028629567474126816,0.026506511494517326,0.015186186879873276,0.026490667834877968,0.018663879483938217,-0.003434122074395418,0.006523643620312214,0.03292321041226387,0.008761566132307053,-0.025429140776395798,0.008076326921582222,0.015392155386507511,-0.021246403455734253,0.01528917159885168,-0.02349620871245861,0.0059295049868524075,0.1764354556798935,-0.04455248638987541,-0.014631657861173153,0.005676005966961384,0.008262489922344685,-0.00857144221663475,0.029279159381985664,0.00326776341535151,0.0293425340205431,0.0006951423711143434,-0.029469283297657967,0.003259841352701187,0.0019586775451898575,0.007248493377119303,-0.025650952011346817,-0.005153163801878691,0.002695409581065178,-0.0024716174229979515,0.027187790721654892,-0.0029568306636065245,-0.008975456468760967,-0.00267362454906106,-0.024272549897432327,0.007973342202603817,-0.006693963427096605,-0.013562208041548729,-0.008824941702187061,-0.02023240551352501,0.022846616804599762,-0.01502775028347969,0.028011662885546684,-0.007406929973512888,0.024177487939596176,-0.020771091803908348,0.012754179537296295,-0.003711387049406767,-0.022165337577462196,-0.0169527605175972,0.0287880040705204,-0.048640161752700806,0.016334855929017067,0.01682601124048233,0.012873006984591484,-5.1522973080864176e-05,0.020771091803908348,-0.024906298145651817,-5.3008319810032845e-05,0.008381317369639874,-0.023337772116065025,0.0109004657715559,-0.044203925877809525,-0.021832620725035667,-0.00191114644985646,-0.008333786390721798,0.012199649587273598,-0.02975447103381157,-0.017840007320046425,-0.0077396477572619915,0.027568040415644646,-0.029405908659100533,-0.04765785112977028,-0.01587538793683052,-0.00489570340141654,0.009363627061247826,0.013506755232810974,0.007256415206938982,-0.022672336548566818,-0.010837091132998466,0.01652497984468937,-0.05177721381187439,0.027504663914442062,-0.006250340025871992,-0.0012942323228344321,-0.037644632160663605,0.001615067245438695,-0.009648813866078854,0.007711921352893114,0.0056363968178629875,-0.021040434017777443,0.04395042732357979,0.025650952011346817,0.004162932280451059,0.03175077587366104,0.0015823895810171962,-0.0077713350765407085,-0.02625301294028759,0.0017329048132523894,-0.016683416441082954,-0.005561138968914747,-0.0311170294880867,-0.04141543433070183,0.014425689354538918,0.023163489997386932,0.008611051365733147,-0.028138412162661552,-0.01578824780881405,0.014108815230429173,-0.029596032574772835,-0.003186564426869154,-0.002877612132579088,0.012057056650519371,0.027869069948792458,0.026823386549949646,0.00345590733923018,0.0052878353744745255,0.00857144221663475,0.0007857485325075686,-0.019313471391797066,-0.010813325643539429,0.0006738523952662945,0.028740473091602325,0.011280715465545654,0.01619226299226284,-0.02054928056895733,0.028090881183743477,-0.013989987783133984,-0.014378158375620842,-0.02200690098106861,0.015590202063322067,-0.01418011263012886,0.011946150101721287,0.004780836869031191,-0.0018616348970681429,-0.017935069277882576,-0.0022280204575508833,0.019852157682180405,0.0008847716962918639,0.005422506481409073,0.01380778569728136,-0.005299718119204044,-0.01503567211329937,-0.018362849950790405,-0.018806472420692444,0.01905997283756733,-0.0006431552465073764,0.01874309778213501,-0.0038599215913563967,-0.012841319665312767,0.025143953040242195,-0.017919225618243217,-0.01054398249834776,0.013720644637942314,0.016010059043765068,0.009522064588963985,0.010353858582675457,0.02858203649520874,0.012564054690301418,-0.03219440206885338,-0.0014170210342854261,0.00038222927832975984,0.025381607934832573,0.036662325263023376,-0.001398206572048366,-0.007874319329857826,0.023765550926327705,-0.005232382100075483,-0.019646188244223595,0.032146867364645004,0.009807250462472439,0.007965420372784138,-0.01684185490012169,0.009522064588963985,0.02435176819562912,0.008436771109700203,0.05339327082037926,0.014465298503637314,-0.0015606045490130782,0.03450758010149002,-0.00019309511117171496,-0.04952741041779518,-0.04363355413079262,0.011660964228212833,-0.02224455587565899,-0.022149493917822838,0.023955674842000008,0.0006411747890524566,0.0022557468619197607,0.011502526700496674,0.0208661537617445,-0.012690803967416286,0.0010704400483518839,-0.019123347476124763,-0.05101671814918518,0.0326063372194767,-0.014512830413877964,0.017174571752548218,0.006040411069989204,-0.02129393443465233,0.005172968376427889,-0.011851088143885136,-0.007006876636296511,0.039324063807725906,0.015162421390414238,0.009854782372713089,-0.04417223855853081,-0.014219721779227257,0.006143394857645035,-0.018331162631511688,0.013696879148483276,0.0003116753068752587,-0.014251409098505974,-0.021452371031045914,-0.035743389278650284,-0.0018477715784683824,0.023321928456425667,-0.011272793635725975,0.06045956164598465,0.030134718865156174,-0.006967267487198114,-0.010757872834801674,-0.00931609608232975,0.006131512112915516,-0.04550310969352722,-0.006951423827558756,0.03463432937860489,0.014195956289768219,0.01673094742000103,0.0463903546333313,0.023258553817868233,0.0271085724234581,-0.000442138290964067,-0.02222871221601963,0.025682639330625534,-0.010932154022157192,-0.0005797804333269596,-0.00645630806684494,-0.010639045387506485,0.02062849886715412,0.026760010048747063,-0.021420683711767197,0.010829169303178787,0.011890697292983532,-0.012730414047837257,-0.018473755568265915,0.002919201971963048,-0.00226366869173944,-0.0216108076274395,-0.0020933488849550486,-0.06648016721010208,0.01829947531223297,-0.03951419144868851,-0.016128888353705406,0.02498551644384861,-0.024922141805291176,0.013277021236717701,0.043221615254879,0.022038588300347328,-0.012255102396011353,-0.021135497838258743,0.021214716136455536,0.02075524814426899,0.014140503481030464,0.03304995968937874,0.014433611184358597,-0.019646188244223595,-0.023147646337747574,-0.023036740720272064,-0.013490911573171616,-0.007058368530124426,0.018251944333314896,-0.026506511494517326,0.0018220256315544248,0.047499414533376694,-0.008666504174470901,0.04566154628992081,-0.016794322058558464,-0.021531589329242706,0.021563276648521423,0.00471350084990263,-0.009379470720887184,-0.006194887217134237,0.003661875380203128,-0.02286246046423912,-0.0171428844332695,-0.016350699588656425,0.049685847014188766,-0.014481142163276672,-0.005648279562592506,0.04385536536574364,0.009379470720887184,-0.049368973821401596,-0.011961993761360645,0.01810934953391552,-0.00894376914948225,0.0045669469982385635,0.012294711545109749,-0.0295326579362154,0.07351477444171906,-0.021753400564193726,-0.024478517472743988,-0.002344867680221796,0.0005277933087199926,-0.015106968581676483,0.03783475607633591,0.022038588300347328,0.035933513194322586,-0.0218959953635931,0.019852157682180405,0.007074212655425072,-0.008413005620241165,0.01958281360566616,0.017507288604974747,0.03295489773154259,-0.056181762367486954,0.0216108076274395,0.011859009973704815,0.01894906535744667,0.031703244894742966,-0.034792765974998474,-0.015249562449753284,-0.006864283233880997,-0.012318477034568787,-0.01841038092970848,0.012215493246912956,0.0005807706620544195,0.016984447836875916,0.039007190614938736,0.05418545752763748,0.014837625436484814,0.014607892371714115,0.022070275619626045,0.025239014998078346,-0.013300786726176739,0.010013218969106674,0.02761557139456272,0.0233853030949831,-0.003174681682139635,0.04055987298488617,0.007680234033614397,-0.005069984123110771,0.03783475607633591,0.005842364858835936,-0.004174815025180578,-0.015186186879873276,0.002394379349425435,-0.023860612884163857,-0.04223930835723877,0.02169002592563629,-0.00036663314676843584,0.012112509459257126,0.006575135979801416,-0.02425670623779297,0.018568817526102066,0.004452080000191927,0.014972297474741936,0.03346189484000206,0.023654645308852196,-0.024636954069137573,-0.010338014923036098,0.01928178407251835,0.0006708817090839148,-0.025033047422766685,0.005307639949023724,-0.005767107009887695,0.01568526402115822,-0.0018448008922860026,0.03365202248096466,-0.05212577432394028,-0.004254033789038658,-0.0021250364370644093,-0.044077176600694656,-0.023781394585967064,0.021024590358138084,-0.007870358414947987,0.0023191217333078384,0.019709564745426178,-0.010995528660714626,-0.007874319329857826,-0.02422501891851425,-0.01674679107964039,-0.011375777423381805,0.02275155484676361,0.003719308879226446,-0.04284136742353439,-0.017808320000767708,-0.0005916631780564785,0.020897841081023216,0.015843700617551804,0.012643272988498211,-0.03137052804231644,0.004131244961172342,-0.0006550379912368953,0.004654087126255035,0.02498551644384861,0.03018224984407425,-0.017744945362210274,-0.04540804773569107,-0.011946150101721287,0.03469770401716232
I am,0.00918253418058157,-0.008798862807452679,-0.019861387088894844,0.005342623684555292,-0.02892882004380226,-0.04182017594575882,-0.01367148943245411,0.049698229879140854,-0.056987982243299484,-0.026243120431900024,0.012961696833372116,-0.00120057153981179,-0.034351374953985214,-0.031742408871650696,0.0289543978869915,0.03711380809545517,-0.0512840710580349,-0.020168323069810867,0.029542693868279457,0.005499289371073246,0.03230512887239456,0.007679821457713842,-0.03335382789373398,0.0036576667334884405,0.0019982883241027594,-0.009943482466042042,-0.022495929151773453,0.014413253404200077,0.0017345142550766468,0.009412736631929874,0.0009168146643787622,-0.04120630398392677,-0.04215269163250923,-0.005428949370980263,0.02391551434993744,0.025053739547729492,-0.022828444838523865,0.008626210503280163,-0.016497867181897163,-0.031409893184900284,-0.022368039935827255,-0.04010644555091858,0.02257266454398632,-0.027036041021347046,0.021101923659443855,-0.012833806686103344,-0.042459629476070404,0.03294457867741585,-0.0021421650890260935,0.017572147771716118,-0.04821470007300377,0.018608059734106064,0.009796408005058765,0.09376927465200424,0.023160960525274277,-0.015679368749260902,0.0043930369429290295,-0.025040950626134872,-0.011145652271807194,0.018224388360977173,-0.02514326199889183,-0.007340911775827408,-0.006886900868266821,-0.009553416632115841,-0.03736959025263786,0.014784135855734348,-0.007014791015535593,0.015423588454723358,0.004552899859845638,-0.015065494924783707,0.053100112825632095,0.012987274676561356,-0.032177235931158066,-0.01790466345846653,-0.015065494924783707,-0.042843300849199295,-0.006656697951257229,0.004396234173327684,0.006100374273955822,0.029747318476438522,0.01451556570827961,0.03256090730428696,-0.03501640632748604,-0.010186473838984966,-0.056067172437906265,0.01131830457597971,-0.06179666519165039,-0.003641680581495166,0.016382766887545586,-0.008670972660183907,0.009924299083650112,0.03719054162502289,-0.054327864199876785,0.03534891828894615,0.059443481266498566,-0.03337940573692322,-0.0247979573905468,0.06501950323581696,-0.00807628221809864,0.01584562659263611,0.06148972734808922,-0.014937604777514935,0.02010437846183777,-0.014208628796041012,0.03169125318527222,0.02431197464466095,0.006695065181702375,-0.09039296954870224,-0.0073600951582193375,0.013070403598248959,-0.05289549008011818,-0.015871204435825348,-0.00914416741579771,0.014336518943309784,-0.013364551588892937,-0.003986984957009554,0.018070921301841736,-0.025923393666744232,-0.015871204435825348,-0.041129566729068756,0.014246995560824871,0.0027224679943174124,-0.018633637577295303,-0.05581139028072357,-0.018237177282571793,-0.018454592674970627,-0.014157473109662533,-0.011567691341042519,-0.026984885334968567,-0.00920811202377081,0.03250975161790848,-0.04171786457300186,-0.005678336136043072,-0.037702105939388275,-0.04297119006514549,0.01709895394742489,-0.026652369648218155,0.0267802607268095,-0.056527577340602875,-0.02514326199889183,0.004463376477360725,0.06727037578821182,0.044147782027721405,0.009470287710428238,0.03708823025226593,-0.034376952797174454,-0.0023499869275838137,0.040285490453243256,-0.04166670888662338,-0.04870068281888962,0.002971854293718934,-0.0011837859638035297,-0.011765921488404274,-0.03670455887913704,0.012207143008708954,-0.008645394816994667,0.000496374792419374,-0.021536750718951225,-0.009796408005058765,0.05826688930392265,-0.0047095660120248795,-0.04253636300563812,0.006266632117331028,-0.01236700639128685,0.020615940913558006,0.03276553377509117,-0.0493401363492012,-0.030514661222696304,-0.016779227182269096,-0.03284226730465889,-0.015973517671227455,0.044940702617168427,-0.03678129240870476,-0.011247964575886726,-0.008664578199386597,-0.011638030409812927,0.027087196707725525,0.0019311457872390747,-0.013326184824109077,0.004639226011931896,0.027496445924043655,0.050107479095458984,-0.03634646534919739,0.02553972229361534,0.011682792566716671,-0.024951426312327385,0.021114712581038475,0.09346234053373337,-0.00920811202377081,0.005592009983956814,0.04095052182674408,0.10333548486232758,0.05489058047533035,-0.007769344840198755,0.0520002581179142,-0.04957033693790436,0.06675881147384644,0.018083710223436356,-0.035630278289318085,0.012232721783220768,0.029593849554657936,-9.976454020943493e-05,0.009041855111718178,0.01133748795837164,-0.02764991484582424,-0.04519648477435112,0.0038654888048768044,-0.0021549540106207132,-0.0022364843171089888,-0.0020302608609199524,0.05079808458685875,-0.006042823661118746,0.004111677873879671,0.008229750208556652,-0.015308486297726631,0.0054545276798307896,-0.010723614133894444,0.007315333466976881,0.05847151204943657,0.01168918702751398,-0.01968234032392502,0.025795504450798035,0.07622271031141281,0.03703707456588745,0.007462407927960157,0.00853029265999794,0.03634646534919739,0.008715733885765076,-0.04471050202846527,0.026601213961839676,0.011401433497667313,0.00785886775702238,0.013313395902514458,0.01367148943245411,-0.00786526221781969,0.03363518789410591,0.004300316330045462,-0.00136203330475837,-0.02382599003612995,0.024836326017975807,-0.021037979051470757,-0.02176695503294468,0.035195451229810715,0.037702105939388275,-0.015218963846564293,-0.005467316601425409,0.029491538181900978,-0.03291900083422661,-0.04555457830429077,0.0017904662527143955,-0.010474227368831635,-0.004409023094922304,-0.012686732225120068,0.008357641287147999,-0.01126714888960123,0.029645005241036415,0.006314591038972139,0.012462924234569073,0.031307581812143326,-0.007308939006179571,-0.00984117016196251,0.0014323730720207095,-0.028800928965210915,0.010058583691716194,-0.017290789633989334,0.05448133125901222,0.014592300169169903,0.05443017557263374,0.005930919665843248,-0.0031636899802833796,-0.002300429390743375,0.022879600524902344,0.018940575420856476,-0.046194031834602356,-0.04504301771521568,0.022508719936013222,-0.007193837780505419,0.025488566607236862,-0.00876049604266882,0.019311457872390747,-0.04320139437913895,0.020321791991591454,-0.00981559231877327,0.01132469903677702,-0.034683890640735626,0.016088617965579033,0.016126984730362892,-0.0031493022106587887,0.017329156398773193,-0.007494380231946707,0.014016793109476566,-0.051795631647109985,0.014298152178525925,-0.0020414514001458883,0.02082056552171707,0.015078283846378326,0.008057097904384136,-0.04389200359582901,0.0023851569276303053,0.009022670798003674,0.05448133125901222,0.02813589945435524,-0.025846660137176514,-0.0234039518982172,-0.01576889306306839,0.023710889741778374,0.01923472434282303,0.01753378100693226,-0.02944038063287735,-0.008549476973712444,-0.06860043853521347,-0.010461438447237015,0.02897997573018074,-0.014144683256745338,-0.04274098947644234,-0.008920358493924141,-0.015653790906071663,0.06087585538625717,-0.006285815499722958,-0.023979458957910538,0.021664641797542572,-0.05258855223655701,-0.016855960711836815,-0.026984885334968567,0.02477237954735756,0.0034786202013492584,0.02808474190533161,0.008018731139600277,0.0267802607268095,0.03169125318527222,0.01344128604978323,-0.005253100302070379,0.033890970051288605,0.0006426494801416993,0.08312879502773285,-0.014873659238219261,-0.020168323069810867,0.04772871732711792,-0.01276346668601036,-0.000992749584838748,-0.014617878012359142,-0.026294276118278503,0.006810166407376528,-0.019081255421042442,-0.02089729905128479,0.04957033693790436,-0.026319853961467743,0.029312491416931152,-0.029568271711468697,0.001500314800068736,0.0400552898645401,-0.0032324311323463917,0.04425009712576866,0.004399431403726339,-0.01662575826048851,-0.07893398404121399,0.06737268716096878,-0.013645910657942295,0.027803383767604828,0.0425875186920166,-0.06414984911680222,0.03910889849066734,-0.006944451481103897,0.004217187408357859,0.015896782279014587,0.0001575650239828974,0.003139710519462824,0.002434714464470744,0.03759979084134102,0.03890427574515343,-0.020590363070368767,-0.0037375984247773886,0.04107841104269028,0.03867407143115997,-0.043661799281835556,0.027905695140361786,0.04816354438662529,0.0029382831417024136,-0.007890840992331505,0.04176902025938034,0.031486626714468,0.04652654379606247,0.03880196064710617,-0.04468492418527603,0.002158151241019368,0.0316145196557045,0.021025190129876137,0.01239258423447609,-0.010288787074387074,0.0011997722322121263,0.0393391028046608,-0.0053777932189404964,0.03125642612576485,0.021396072581410408,0.002201314317062497,-0.06532644480466843,0.031844720244407654,0.02644774504005909,-0.008248933590948582,-0.013786590658128262,-0.015244541689753532,0.0021997157018631697,0.003696033963933587,0.038648493587970734,-0.014157473109662533,-0.009917904622852802,0.010512595064938068,-0.0077565559186041355,0.011062524281442165,-0.027496445924043655,0.0021837293170392513,-0.041129566729068756,0.06005735322833061,0.047472935169935226,0.0006370543269440532,-0.0003572939313016832,-0.00955981109291315,0.007379279006272554,0.04506859555840492,0.034811779856681824,-0.014310941100120544,-0.005595207214355469,-0.01062769629061222,-0.02253429777920246,0.029184600338339806,-0.01232863962650299,0.01922193542122841,-0.018224388360977173,0.012526869773864746,-0.05596486106514931,0.01409352757036686,0.03552796691656113,-0.009438315406441689,-0.0036832450423389673,-0.025283941999077797,-0.06982818245887756,1.461248302803142e-06,-0.021639063954353333,-0.004207595717161894,0.009956271387636662,-0.013108771294355392,-0.0260640736669302,0.018109288066625595,-0.03803461790084839,-0.04361064359545708,-0.019285880029201508,0.007002002093940973,-0.03501640632748604,-0.017661670222878456,0.0072897556237876415,0.0027976036071777344,-0.039083320647478104,-0.03463273495435715,-0.024427074939012527,-0.041155148297548294,-0.023544631898403168,0.014119105413556099,0.019285880029201508,0.009406342171132565,-0.012155987322330475,-0.000951984548009932,0.04941686987876892,-0.012846595607697964,-0.03657666966319084,0.0031173296738415956,0.005051672924309969,-0.011861839331686497,0.02821263298392296,-0.02808474190533161,0.003606510581448674,-0.03192145749926567,-0.029286913573741913,0.04212711378931999,0.02770107053220272,-0.01276986114680767,0.008722128346562386,-0.05041441321372986,-0.013684278354048729,-0.015692157670855522,-0.01699664071202278,-0.019797440618276596,0.03586048260331154,0.004597661551088095,0.013697067275643349,-0.010698036290705204,-0.009470287710428238,0.010525383986532688,0.01026320829987526,-0.03064255230128765,0.009099405258893967,-9.976454020943493e-05,0.00692526763305068,0.016971062868833542,-0.014042370952665806,0.01452835462987423,-0.011765921488404274,-0.059852730482816696,-0.044147782027721405,-0.024081772193312645,-0.0226238202303648,-0.011017762124538422,0.006065204739570618,-0.012948907911777496,0.0376509465277195,0.016728071495890617,0.05153984948992729,0.01234142854809761,0.025411833077669144,0.021089134737849236,0.03066813014447689,-0.024580543860793114,0.027828961610794067,0.014963182620704174,-0.047498513013124466,-0.0005051672924309969,-0.005889355204999447,0.0015762498369440436,0.030949488282203674,-0.005425752140581608,0.020590363070368767,-0.00544173875823617,0.027803383767604828,-0.03284226730465889,-0.022048313170671463,0.019349824637174606,-0.03683244809508324,0.012053675018250942,-0.0063753388822078705,0.01708616316318512,0.01578168198466301,0.034325797110795975,-0.008434374816715717,-0.027163932099938393,0.042792145162820816,-0.026677947491407394,0.06808887422084808,0.016958273947238922,-0.020309003069996834,0.02862188220024109,-0.03376307711005211,-0.005297861993312836,0.001428376417607069,0.017188476398587227,0.02428639680147171,-0.010685247369110584,0.022930758073925972,-0.01698385179042816,-0.003408280434086919,0.033021312206983566,0.030284458771348,-0.0036224969662725925,-0.026166385039687157,0.019068466499447823,0.022444773465394974,0.011976940557360649,-0.02481074631214142,-0.0011062524281442165,-0.006579963490366936,-0.013377340510487556,0.00692526763305068,-0.018403435125947,-0.02094845473766327,0.021536750718951225,0.005000516772270203,-0.009214506484568119,0.06670765578746796,-0.027905695140361786,-0.0012693126918748021,-0.01345407497137785,0.0005910936743021011,-0.010781165212392807,0.03972277417778969,9.746650903252885e-05,-0.02982405200600624,0.012085647322237492,-0.024593332782387733,0.013262239284813404,-0.00616751704365015,-0.006500032264739275,-0.01576889306306839,-0.019784651696681976,-0.026550056412816048,0.030796019360423088,-0.01750820316374302,-0.03281668946146965,0.014195839874446392,-0.029133444651961327,0.01956723816692829,0.015602635219693184,0.018544115126132965,0.00405732449144125,0.013620332814753056,-0.044531453400850296,0.011676398105919361,0.04143650457262993,-0.011983335018157959,-0.005895749665796757,-0.021076345816254616,-0.040720317512750626,-0.008920358493924141,0.0013380538439378142,-0.002732059685513377,-0.0028583514504134655,-0.02303306944668293,-0.017175687476992607,-0.021856477484107018,-0.029542693868279457,-0.002065430860966444,-0.02602570690214634,-0.046296343207359314,-0.01344128604978323,0.007890840992331505,0.02731739915907383,-0.021818110719323158,0.016971062868833542,-0.022457562386989594,0.01923472434282303,-0.023288851603865623,0.004652014933526516,-0.0006298604421317577,-0.010800348594784737,-0.021460017189383507,0.027982430532574654,0.03545123338699341,0.014860870316624641,0.021818110719323158,0.00032871842267923057,0.011343882419168949,0.005064461845904589,-0.015986306592822075,0.017290789633989334,0.034351374953985214,0.03788115084171295,0.03711380809545517,0.014809713698923588,-0.014438831247389317,-0.007641454227268696,-0.02087172120809555,0.013479653745889664,-0.004290724638849497,-0.007814106531441212,0.011989729478955269,0.019388191401958466,0.019439348950982094,0.03371192142367363,-0.03931352496147156,0.014579511247575283,-0.012130409479141235,0.01628045365214348,-0.023749256506562233,-0.01173394825309515,-0.03360961005091667,0.013658699579536915,-0.0375230573117733,-0.03447926416993141,0.0191835667937994,-0.013236661441624165,-0.019503293558955193,-0.004415417555719614,-0.03404443711042404,-0.011676398105919361,0.002185327932238579,-0.03143547102808952,0.04097609966993332,-0.00018634037405718118,0.022508719936013222,-0.008300090208649635,0.013505231589078903,-0.010295181535184383,0.02767549268901348,-0.021894844248890877,-0.004882217850536108,0.04890530928969383,-0.08594238013029099,0.04358506575226784,0.016779227182269096,0.001526692183688283,-0.041615553200244904,-0.02639658935368061,-0.01965676248073578,-0.0026041693054139614,-0.009527838788926601,-0.03396770358085632,-0.010512595064938068,0.03488851338624954,0.0030054254457354546,0.03795788437128067,-0.031026223674416542,-0.02174137718975544,0.004821470007300377,-0.012168776243925095,0.025705980136990547,0.01873595081269741,-0.022291304543614388,0.007296150084584951,-0.03146104887127876,0.003251614747568965,-0.006810166407376528,0.026319853961467743,-0.10082882642745972,0.00457528093829751,0.001638596411794424,-0.013991215266287327,-0.00544173875823617,-0.029107866808772087,-0.019042888656258583,-0.025283941999077797,0.016037462279200554,0.028724195435643196,0.004428206942975521,0.022854022681713104,0.009726068936288357,0.020347369834780693,0.04688463732600212,0.017124531790614128,0.03453041985630989,-0.013287818059325218,0.0013852134579792619,-0.011906600557267666,-0.0392112098634243,-0.003910250496119261,0.0333026722073555,-0.02436313033103943,0.022483140230178833,0.024107350036501884,-0.0006050816737115383,-0.0021741376258432865,-0.014029582031071186,0.008268117904663086,-0.0030885543674230576,0.012104830704629421,0.002132573164999485,0.03033561445772648,0.020245058462023735,0.026089651510119438,0.026575636118650436,-0.035195451229810715,-0.009444709867238998,0.016510656103491783,-0.025258364155888557,-0.015270119532942772,-0.0359627939760685,0.029670584946870804,0.006125952582806349,0.004086100030690432,0.004827864468097687,0.023736467584967613,0.025501355528831482,-0.04514532908797264,0.020360158756375313,-0.02816147729754448,0.008408796973526478,0.018902208656072617,0.008012336678802967,0.006624725181609392,-0.016766438260674477,0.0178535059094429,-0.049237821251153946,0.023992247879505157,-0.013607543893158436,0.047575246542692184,0.005294664762914181,0.02002764493227005,0.018083710223436356,-0.01748262345790863,-0.012168776243925095,-0.006404114421457052,0.008018731139600277,0.01869758404791355,0.024977004155516624,0.022406406700611115,0.028417257592082024,-0.003820727113634348,-0.0003425065951887518,0.053560521453619,-0.03506756201386452,-0.03798346221446991,-0.020193902775645256,-0.004018957260996103,-0.02602570690214634,0.008383219130337238,-0.004792694468051195,-0.006432889495044947,-0.012731494382023811,-0.017201265320181847,-0.022802866995334625,0.019541660323739052,0.03542565554380417,-0.008702944964170456,-0.018505748361349106,-0.02428639680147171,-0.012891356833279133,-0.021882055327296257,-0.003312362590804696,0.01516780722886324,-0.00201907055452466,0.018032552674412727,-0.05770416930317879,-0.023749256506562233,-0.013351762667298317,-0.010710825212299824,0.026102440431714058,-0.015359642915427685,0.018646428361535072,0.02513047307729721,0.01741867884993553,-0.03332825005054474,-0.018889419734477997,-0.0034946065861731768,-0.02941480278968811,0.020974034443497658,0.01342849712818861,0.0081146489828825,-0.026626791805028915,-0.003827121574431658,-0.02680583856999874,0.014323730021715164,-0.010058583691716194,-0.001878391019999981,0.01385053526610136,0.07965017110109329,-0.03199819102883339,-0.010857898741960526,-0.016485078260302544,0.00807628221809864,-0.008798862807452679,-0.05197468027472496,-0.02721508778631687,0.009265663102269173,0.03547681123018265,0.039032164961099625,-0.006170714274048805,0.011203203350305557,-0.014170262031257153,-0.019963698461651802,0.03463273495435715,0.0023132185451686382,-0.04563131183385849,0.012622787617146969,-0.012072858400642872,0.02000206708908081,-0.023250482976436615,0.009758041240274906,0.015692157670855522,-0.0032707981299608946,0.016344400122761726,-0.003913447726517916,-0.018019763752818108,0.021536750718951225,0.013518020510673523,-0.016050251200795174,0.006957240402698517,0.014694612473249435,0.008229750208556652,0.02263660915195942,0.024913059547543526,-0.0036288914270699024,0.0010319160064682364,0.0013660298427566886,-0.02518162876367569,-0.024529388174414635,0.005371398758143187,0.004597661551088095,-0.007750160992145538,0.0022956335451453924,-0.02936364710330963,0.016510656103491783,0.01063409075140953,0.014541144482791424,-0.0037407956551760435,-0.015641001984477043,0.017329156398773193,-0.048470478504896164,-0.02302028052508831,-0.026984885334968567,-0.0027544405311346054,-0.000681016652379185,-0.003964603878557682,-0.004712763242423534,0.015410799533128738,0.02386435866355896,-0.027470868080854416,0.009636545553803444,0.02339116297662258,-0.02133212611079216,-0.026601213961839676,0.010154501534998417,0.0054577249102294445,-0.011625241488218307,0.024005036801099777,0.02764991484582424,0.009355186484754086,-0.021421650424599648,-0.005061264615505934,-0.022048313170671463,0.02215062640607357,-0.0002395947667537257,-0.009898720309138298,-0.006970029324293137,0.011567691341042519,-0.028877662494778633,-0.010109740309417248,-0.016344400122761726,-0.006026837509125471,0.004409023094922304,0.019042888656258583,0.027624337002635002,0.0001072081649908796,-0.023199327290058136,0.02437591925263405,0.0005095634842291474,0.010077767074108124,0.010947422124445438,-0.006848533637821674,-0.03887869790196419,0.027982430532574654,0.02004043385386467,0.008952331729233265,0.02688257209956646,-0.04107841104269028,-0.04483839124441147,0.012258299626410007,-0.019733496010303497,-0.0040892972610890865,-0.0034786202013492584,0.03887869790196419,-0.02594897150993347,0.051872365176677704,0.036499932408332825,-0.0062218704260885715,0.020206691697239876,-0.010410282760858536,-0.043303705751895905,0.03069370798766613,-0.0016433922573924065,0.007967574521899223,-0.002051043091341853,0.015385220758616924,-0.004578478168696165,0.007468802388757467,-0.01670249179005623,-0.008549476973712444,0.009508654475212097,-0.0311285350471735,0.06287094205617905,-0.004735143855214119,-0.03442810848355293,0.009252874180674553,0.004140453413128853,0.012072858400642872,0.011887417174875736,3.824224040727131e-05,0.02987520955502987,0.0023324021603912115,0.02094845473766327,0.0073600951582193375,0.04391758143901825,-0.007021185476332903,-0.027445290237665176,0.019337035715579987,-0.023621365427970886,-0.008280906826257706,-0.0010974599281325936,-0.01512944046407938,-0.03291900083422661,-0.01446441002190113,-0.022917969152331352,0.016971062868833542,-0.006384930573403835,0.021434439346194267,-0.014170262031257153,-0.04985169693827629,0.01062769629061222,0.031307581812143326,0.007468802388757467,0.0036864422727376223,-0.01965676248073578,-0.0052243247628211975,0.008715733885765076,-0.021485595032572746,0.04228058084845543,0.04990285262465477,0.016421133652329445,-0.015960728749632835,-0.014553933404386044,0.005809423513710499,0.0510282889008522,-0.012654759921133518,-0.004098888952285051,-0.028749773278832436,-0.026115229353308678,0.031819142401218414,0.01020565815269947,0.011375855654478073,0.027470868080854416,-0.02519441768527031,-0.00756472023203969,-0.014208628796041012,0.05662989243865013,-0.01346686389297247,0.007168259471654892,-0.018070921301841736,-0.008229750208556652,0.020794987678527832,-0.040311068296432495,-0.06849812716245651,0.00806988775730133,-0.0024299186188727617,-0.014170262031257153,0.024414286017417908,0.024567754939198494,-0.0049173878505826,-0.027598759159445763,-0.008466348052024841,0.010474227368831635,0.056476421654224396,0.02649890072643757,0.03309804946184158,-0.02424803003668785,-0.00479589169844985,0.046731170266866684,0.024005036801099777,0.005422554910182953,-0.022751711308956146,-0.003986984957009554,-0.0382392443716526,0.005115617997944355,-0.012750677764415741,-0.002319613005965948,-0.001975907478481531,0.004111677873879671,0.05159100890159607,0.009336003102362156,-0.029593849554657936,-0.04893088713288307,0.021549541503190994,-0.017239632084965706,-0.010058583691716194,0.025846660137176514,0.033865392208099365,0.014860870316624641,-0.018978942185640335,0.010282391682267189,0.0255141444504261,-0.02342952974140644,0.014349308796226978,0.0031572955194860697,-0.03662782534956932,0.024913059547543526,0.014937604777514935,0.0049941218458116055,-0.00980919785797596,-0.046245187520980835,-0.009099405258893967,0.015231752768158913,-0.01879989542067051,-0.012162381783127785,-0.024516599252820015,0.018646428361535072,-0.004345078021287918,-0.028877662494778633,0.02180532179772854,-0.03189587965607643,-0.034249063581228256,-0.01450277678668499,-0.023749256506562233,-0.007820500992238522,-0.006519215647131205,-0.011574085801839828,0.010109740309417248,0.05069577321410179,0.024861903861165047,0.027368556708097458,0.016523446887731552,-0.019963698461651802,-0.02138328365981579,-0.01576889306306839,-0.0365510918200016,0.004616845399141312,0.01127993781119585,0.008786073885858059,-0.013684278354048729,0.03230512887239456,0.00283437198959291,-0.060415446758270264,0.008850019425153732,0.014426042325794697,0.007251388393342495,0.03156336396932602,-0.01172115933150053,0.00196791416965425,0.019260302186012268,-0.011241570115089417,0.004345078021287918,0.0022988307755440474,0.01656181365251541,-0.0025034556165337563,0.020155534148216248,0.021575119346380234,0.024900270625948906,0.025795504450798035,0.01787908561527729,0.010998578742146492,0.012546053156256676,-0.016510656103491783,-0.023762045428156853,0.010966606438159943,-8.048106246860698e-05,-0.014208628796041012,0.008575054816901684,0.005531262140721083,0.0022988307755440474,-0.02257266454398632,-0.02055199444293976,-0.0029542692936956882,-0.0075071691535413265,-0.0025466184597462416,-0.025693191215395927,-0.012047280557453632,0.009534233249723911,0.0331747829914093,0.0038942641112953424,0.015014338307082653,0.04859837144613266,-0.04652654379606247,0.012603603303432465,0.035246606916189194,-0.010467832908034325,-0.011516534723341465,0.01088987197726965,0.025808293372392654,-0.020257847383618355,0.019464926794171333,-0.011062524281442165,0.014669034630060196,-0.00618030596524477,0.026319853961467743,0.015653790906071663,0.0030262076761573553,0.03268880024552345,0.04552900046110153,-0.01703500747680664,0.06220591440796852,-0.027522023767232895,0.03156336396932602,0.014886448159813881,-0.019477715715765953,0.0979640856385231,-0.041180726140737534,-0.02813589945435524,-0.028391679748892784,-0.0018400237895548344,0.01451556570827961,0.010589329525828362,0.031793564558029175,-0.0021997157018631697,0.02088451012969017,-0.008549476973712444,0.005803029052913189,0.016229297965765,0.001975907478481531,-0.04890530928969383,-0.001356438035145402,0.009790013544261456,-0.011650820262730122,-0.0016266066813841462,-0.006995607633143663,-0.007890840992331505,0.010467832908034325,-0.029721740633249283,0.009118588641285896,-0.04547784477472305,-0.023263271898031235,-0.024529388174414635,0.00039925798773765564,0.02731739915907383,0.003545762738212943,0.007603086996823549,0.008702944964170456,0.003312362590804696,-0.020667096599936485,-0.009252874180674553,-0.0018799896351993084,-0.030872754752635956,0.008901175111532211,0.014144683256745338,-0.006957240402698517,0.0358349047601223,0.009508654475212097,0.0035361708141863346,-0.012514080852270126,0.01836506836116314,0.008236144669353962,0.012571630999445915,0.02092287689447403,-0.024542177096009254,-0.009783619083464146,-0.026128018274903297,0.02470843493938446,0.0349908284842968,0.006618330720812082,0.007730977609753609,-0.002484272001311183,0.013300606980919838,0.02295633591711521,0.012104830704629421,-0.015743313357234,0.01447719894349575,-0.016037462279200554,-0.004559294320642948,-0.01790466345846653,0.00512520968914032,-0.011414222419261932,-0.030156567692756653,-0.01657460257411003,0.006122755352407694,0.007385673467069864,-0.017738405615091324,0.011203203350305557,0.020181111991405487,0.00201907055452466,-0.004549702629446983,0.005854185204952955,-0.008875597268342972,-0.0012533264234662056,0.006727037485688925,0.055248674005270004,-0.00960457231849432,-0.01021844707429409,0.0035905244294553995,0.005144393537193537,-0.0030278062913566828,0.02693372778594494,-0.01702221855521202,0.0031493022106587887,0.021600697189569473,-0.04437798634171486,-0.004188412334769964,0.015372431837022305,0.004226779565215111,-0.024977004155516624,0.01868479512631893,-0.009387158788740635,-0.026984885334968567,-0.0375230573117733,-0.0075902980752289295,-0.0011070517357438803,0.027419712394475937,0.00786526221781969,-0.0034882118925452232,0.020309003069996834,-0.020155534148216248,-0.009662123396992683,0.028442835435271263,-0.005412963218986988,0.012865778990089893,-0.04826585575938225,0.05023536831140518,-0.023263271898031235,-0.012910541146993637,-0.024094561114907265,0.009796408005058765,-0.03450484201312065,0.026677947491407394,-0.024913059547543526,-0.011625241488218307,-0.019106833264231682,-0.0030741665977984667,0.02519441768527031,-0.01746983453631401,-0.01873595081269741,0.022751711308956146,0.01670249179005623,0.051386382430791855,0.044940702617168427,0.018851052969694138,-0.023723678663372993,0.00853029265999794,0.0019551252480596304,0.0340188592672348,0.0034658312797546387,0.028800928965210915,0.010346337221562862,-0.029645005241036415,-0.0071234977804124355,-0.008050703443586826,0.015078283846378326,-0.0007705399766564369,-0.0035969188902527094,0.009956271387636662,-0.00533303152769804,-0.007967574521899223,0.029593849554657936,0.004853442311286926,-0.012852990068495274,-0.00757750915363431,-0.007941996678709984,-0.0009575797594152391,-0.035655856132507324,-0.0037152175791561604,0.013876114040613174,0.012155987322330475,0.012245510704815388,-0.010135318152606487,0.02424803003668785,-0.014656245708465576,-0.018006974831223488,-0.004146847873926163,0.04082263261079788,-0.008319273591041565,-0.05703914165496826,0.0670657530426979,0.020245058462023735,0.021204236894845963,0.01275707222521305,-0.005336228758096695,-0.06814002990722656,-0.016050251200795174,-0.01236700639128685,-0.024030614644289017,-0.045810360461473465,0.012974485754966736,-0.02261103130877018,0.0013436489971354604,-0.005352215375751257,-0.030386770144104958,-0.020245058462023735,-0.003820727113634348,0.006062007509171963,0.019042888656258583,0.014336518943309784,-0.01958002708852291,-0.023672522976994514,0.006330577190965414,-0.030616972595453262,0.012418163008987904,-0.056885670870542526,0.019503293558955193,0.00918253418058157,0.0027416516095399857,0.0032388255931437016,-0.04534995183348656,0.0041596367955207825,-0.006324182730168104,-0.020807776600122452,-0.005556839983910322,-0.015001549385488033,-0.010864293202757835,-0.007686215918511152,0.01130551565438509,0.030105412006378174,0.02002764493227005,0.005710308440029621,0.022815655916929245,0.036039527505636215,-0.019886964932084084,-0.03271437808871269,0.013761011883616447,0.017802350223064423,-0.007718188688158989,-0.018186021596193314,0.02264939807355404,-0.0037983462680131197,-0.014119105413556099,0.027880117297172546,-0.006346563342958689,-0.015973517671227455,0.0026121623814105988,-0.01580725982785225,-0.003970998339354992,-0.030003098770976067,-0.024030614644289017,-0.005083645228296518,-0.015423588454723358,-0.02603849582374096,-0.002784814452752471,0.024056194350123405,0.031793564558029175,-0.025859449058771133,-0.0148992370814085,-0.026959307491779327,-0.005409765988588333,0.04824027791619301,-0.02821263298392296,-0.015474744141101837,-0.05417439341545105,-0.04650096595287323,-0.0058381990529596806,-0.044966280460357666,0.011395039036870003,0.013159926980733871,-0.047907762229442596,0.004450587555766106,0.02431197464466095,-0.035655856132507324,0.02382599003612995,-0.003208451671525836,0.015116650611162186,0.008779679425060749,0.0017520991386845708,0.011740343645215034,0.004520927555859089,-0.008191383443772793,-0.03117969073355198,-0.002975051524117589,0.022508719936013222,-0.03025888092815876,0.007181048858910799,0.006784588098526001,0.02055199444293976,-0.02176695503294468,0.021025190129876137,-0.017572147771716118,0.021869266405701637,0.007021185476332903,0.030130989849567413,-0.032228391617536545,-0.03744632378220558,-0.045401111245155334,-0.029747318476438522,0.021165870130062103,0.0041596367955207825,0.019516082480549812,-0.02180532179772854,0.009636545553803444,-0.0018192416755482554,-0.029517116025090218,-0.021933212876319885,-0.0014347709948197007,-0.00405732449144125,0.021012401208281517,0.0030230104457587004,-0.044122204184532166,0.0026537268422544003,0.033865392208099365,-0.021677430719137192,-0.009073827415704727,0.021511172875761986,-0.013287818059325218,-0.002581788459792733,0.04435240849852562,0.005115617997944355,0.051846787333488464,-0.003980590030550957,-0.002140566473826766,0.01578168198466301,0.01240537315607071,0.014259785413742065,-0.04274098947644234,0.027036041021347046,-0.013159926980733871,0.01955444924533367,0.011158442124724388,-0.03412117063999176,-0.011145652271807194,0.005115617997944355,-0.0018975745188072324,-0.014937604777514935,-0.0041564395651221275,-0.021933212876319885,-0.002732059685513377,0.003437055740505457,0.006170714274048805,0.0512840710580349,0.03320036083459854,0.036909185349941254,-0.027905695140361786,0.0009719674126245081,0.015602635219693184,0.0011182421585544944,0.027547603473067284,-0.0196695514023304,-0.017265209928154945,0.009048249572515488,0.0062218704260885715,0.039850663393735886,-0.055146362632513046,0.017277998849749565,-0.005281875375658274,0.012482107616961002,-0.0017009429866448045,0.005221127532422543,-0.0026201556902378798,-0.007750160992145538,0.0014787332620471716,0.03207492455840111,-0.027854539453983307,-0.037344012409448624,0.012258299626410007,0.060415446758270264,0.0170733742415905,0.023659732192754745,-0.005230719223618507,-0.03673013672232628,-0.016766438260674477,-0.017265209928154945,0.015909571200609207,-0.044582609087228775,-0.016395555809140205,0.03798346221446991,0.027394134551286697,-0.014183050952851772,0.002477877540513873,0.03271437808871269,-0.01301924791187048,-0.020615940913558006,0.0028295761439949274,0.01968234032392502,0.00017874687910079956,0.016075829043984413,0.027368556708097458,0.0037152175791561604,0.028775351122021675,-0.023736467584967613,0.09269499778747559,0.023659732192754745,0.003024609060958028,-0.036039527505636215,0.020628729835152626,-0.0061419387347996235,-0.05468595772981644,0.0025785912293940783,0.015372431837022305,0.021958790719509125,0.04893088713288307,0.0018672005971893668,-0.025910604745149612,0.04128303751349449,-0.030796019360423088,-0.02507931739091873,0.040336646139621735,-0.0077437665313482285,0.016728071495890617,-0.03156336396932602,0.004687184933573008,-0.015346853993833065
